#include "FCLayer.h"
// Trained on 8k dog / no-dog binary classification

const double initial_model_bias[] = {0.08558154, -0.08558163};
const double initial_model_weights[] = {
      0.07168999,  0.07093393,  0.14018372,  0.14018327,  0.05810054,
      0.05802297, -0.07410979, -0.0738539 , -0.01224348, -0.01215865,
      -0.13091931,  0.21546115,  0.10125715,  0.10134993, -0.07413147,
      -0.07439099, -0.06184382, -0.06181126,  0.00083795,  0.00149697,
      -0.03897167, -0.03872154, -0.01879336, -0.01878951, -0.05627485,
      -0.05625216, -0.35396883,  0.39495143,  0.16088632, -0.25729492,
      -0.10275028, -0.1026675 , -0.09283438, -0.09283756, -0.04795968,
      -0.0481106 , -0.46363565,  0.47671407, -0.01384905, -0.00447169,
      -0.00767066, -0.00761715, -0.01137266, -0.01135145,  0.03956768,
      0.03957317, -0.03381831, -0.03419717,  0.09204329,  0.09184879,
      0.03686117,  0.03688825, -0.09403573, -0.09405135,  0.02920679,
      0.02933406, -0.08844789, -0.08853102, -0.0847619 , -0.08311669,
      0.08026171,  0.0796629 , -0.07432654, -0.0744877 ,  0.03903978,
      0.0383551 ,  0.07692228,  0.07682239,  0.00739892,  0.0074377 ,
      0.04621403,  0.04631572,  0.06233774,  0.06238936,  0.06373248,
      0.06386399,  0.03373879,  0.03407782,  0.05577807,  0.05622289,
      0.05466111,  0.0564717 ,  0.05694389,  0.05675327,  0.02709804,
      0.02712604,  0.00361158,  0.00369934,  0.25159916, -0.23643038,
      0.02012629,  0.02012875, -0.06190006, -0.06239133, -0.24638379,
      0.22978733, -0.10019336, -0.10000549, -0.06415121, -0.06406697,
      0.05390483,  0.05398929,  0.09964863,  0.10022175,  0.04989993,
      0.04905739,  0.07506058,  0.07595515,  0.01704206,  0.01707293,
      -0.00619068, -0.01463624, -0.04503923, -0.0451085 , -0.04831591,
      -0.0476345 , -0.1376636 , -0.13779026, -0.11013918, -0.12440069,
      0.13642706,  0.13636684, -0.05228312, -0.05233908,  0.06509004,
      0.06506539, -0.05138277, -0.05140109,  0.05080156,  0.05133656,
      -0.078444  , -0.07835598,  0.02016387,  0.02048565, -0.0376487 ,
      -0.03731735, -0.00939265, -0.00931421, -0.00468205, -0.00492001,
      0.06138162,  0.06145221,  0.03585195,  0.03597203, -0.3007913 ,
      0.3006148 ,  0.377875  , -0.40062156, -0.06061538, -0.06130901,
      0.00675081,  0.00679944, -0.05065987, -0.05070452, -0.13896815,
      -0.13904308,  0.09265722,  0.09334209, -0.13315712, -0.13289574,
      -0.07197165, -0.07229659,  0.0745015 ,  0.07469526, -0.05933112,
      -0.05832031, -0.02173107, -0.02179518,  0.10650945,  0.10675649,
      -0.08783317, -0.08772595, -0.05810835, -0.05612781, -0.02444657,
      -0.02465268, -0.0199524 , -0.0198834 ,  0.074536  ,  0.07458106,
      0.10033005,  0.10021254, -0.3429783 ,  0.3774066 ,  0.13405837,
      0.13416667,  0.01963953,  0.01966765, -0.03573176, -0.0359267 ,
      -0.07980753, -0.07970313,  0.06001445,  0.05382619, -0.06397508,
      -0.06423512,  0.08237936,  0.08252191,  0.03839105,  0.03844513,
      -0.06521061, -0.06501263,  0.02733659,  0.02721914, -0.06881996,
      -0.06885421, -0.03320974, -0.03319879,  0.04365296,  0.04354954,
      -0.05206276, -0.05208507, -0.01301841, -0.0128294 , -0.00238957,
      -0.00235198, -0.3098058 ,  0.31207114, -0.05022464, -0.05011163,
      -0.0806412 , -0.08063363, -0.00679854, -0.01126088,  0.00134615,
      0.00142438, -0.39272413,  0.3775166 ,  0.0265792 ,  0.02659874,
      -0.01470394, -0.01656722,  0.08347063,  0.08214717,  0.3325388 ,
      -0.24953824, -0.10551224, -0.10551513,  0.03633926,  0.03634805,
      -0.0117904 , -0.00981981,  0.03934224,  0.03955718,  0.10006125,
      0.10013341, -0.04423587, -0.04411171,  0.02447847,  0.024564  ,
      -0.06527217, -0.06519797,  0.06725655,  0.06810225,  0.051027  ,
      0.0509846 ,  0.03925848,  0.03770661, -0.0031315 , -0.00301287,
      -0.00624296, -0.00611177, -0.04380893, -0.04539516,  0.00258754,
      -0.11391188,  0.00072343,  0.00138796,  0.2776853 , -0.3437291 ,
      0.09027502,  0.09012288,  0.04102091,  0.04337964,  0.02024079,
      0.02055687,  0.00917042,  0.00791404, -0.01408286, -0.01440221,
      -0.10255095, -0.10247644,  0.02348975,  0.02334828,  0.25611386,
      -0.27087384,  0.02202941,  0.02162507, -0.1118564 , -0.11181158,
      -0.08017021, -0.08021232,  0.11662102,  0.11671803, -0.06997235,
      -0.07077195,  0.08290115,  0.08272505,  0.00068876, -0.00185605,
      -0.09746628, -0.09746519, -0.0154012 , -0.01617656,  0.00282206,
      0.00314476, -0.01569918, -0.01599419, -0.02435168, -0.02437891,
      -0.5308141 ,  0.57932645, -0.11753685, -0.11745376, -0.11570402,
      -0.11562854, -0.05104811, -0.05075606, -0.02305056, -0.02455798,
      -0.04206524, -0.04171735,  0.02685071,  0.02694452,  0.24023761,
      -0.19321957,  0.0708196 ,  0.0707995 , -0.0435198 , -0.04348541,
      -0.03240912, -0.03224351,  0.10352735,  0.10356284,  0.08932678,
      0.08933071, -0.06191229, -0.06127301,  0.12138531,  0.12174109,
      -0.01989888, -0.00743882, -0.04207218, -0.04164417, -0.08312049,
      -0.06642811, -0.08697369, -0.08764228, -0.02516148, -0.02506847,
      -0.02326604, -0.02355509, -0.07983012, -0.0798711 , -0.25961572,
      0.35236594,  0.0584928 ,  0.05771175,  0.07465177,  0.07435394,
      -0.01281226, -0.01209527,  0.05651   ,  0.05658976,  0.0609    ,
      0.06084421, -0.0533757 , -0.05343005, -0.07783872, -0.07783476,
      -0.01632413, -0.01700388, -0.055774  , -0.05577601, -0.06283636,
      -0.06756648, -0.11047469, -0.11057252,  0.01107963,  0.0109978 ,
      -0.10563431, -0.10584833, -0.07052658, -0.0655302 ,  0.0230823 ,
      0.02347211, -0.11757515, -0.1184411 ,  0.00879552,  0.00880601,
      0.07194074,  0.07197646,  0.03061995,  0.02828274, -0.0032193 ,
      -0.00370012, -0.02649869, -0.02661759, -0.43539968,  0.38977832,
      0.01254125,  0.0125876 ,  0.00623139,  0.00655925,  0.01093041,
      0.01090835, -0.01220039, -0.01209055, -0.03383605, -0.03339904,
      0.07915339,  0.0793725 ,  0.03278508,  0.03267733, -0.05888168,
      -0.05864355, -0.06946824, -0.0716107 , -0.09655498, -0.09650955,
      -0.01812868, -0.01823901, -0.03055686, -0.03071079,  0.05297628,
      0.05302816,  0.11288207,  0.11295395, -0.00912314, -0.00902285,
      -0.05166335, -0.05122344,  0.04606769,  0.04512527, -0.00179464,
      -0.00164097, -0.06021762, -0.06020006, -0.07943237, -0.07983376,
      0.02468139,  0.02467356, -0.30384058,  0.37258643,  0.29942816,
      -0.2842603 ,  0.01662595,  0.01668992, -0.04304055, -0.0430259 ,
      -0.08369417, -0.08379084,  0.02347496,  0.02346146, -0.02499558,
      -0.02499707,  0.07603627,  0.0759748 , -0.01914041, -0.01838751,
      0.06124983,  0.06123266, -0.07109787, -0.07115573,  0.05657353,
      0.05651395,  0.03263828,  0.03293543, -0.07934555, -0.07772869,
      -0.2761098 ,  0.37288272,  0.06065146,  0.06071574,  0.00731726,
      0.00732449, -0.04728706, -0.04729409, -0.06988908, -0.06846598,
      0.04680758,  0.04619215,  0.09211577,  0.09216671, -0.07270771,
      -0.07300868, -0.00184339, -0.00201967,  0.38314912, -0.36673588,
      0.01719776,  0.01385233,  0.03916124,  0.039269  ,  0.26525536,
      -0.22645007,  0.18524343, -0.23816907,  0.10825034,  0.1079891 ,
      0.00608608,  0.02335839,  0.04024133,  0.0402542 , -0.03098212,
      -0.03124478,  0.09769181,  0.09933688,  0.04818006,  0.04802442,
      -0.01126344, -0.01120145
};